{
  "learner": {
    "attributes": {
      "aws": "False",
      "best_iteration": "28",
      "best_score": "0.22501309635649078",
      "boost_rounds": "100",
      "check_year_end": "2020",
      "check_year_start": "2020",
      "cube_id": "FCWQ_cube_2016-2020_v3.0.zarr",
      "early_stopping_rounds": "1",
      "history": "5",
      "learn_fraction": "None",
      "learn_year_end": "2019",
      "learn_year_start": "2016",
      "min_predicted_value": "0.0",
      "objective": "squaredlogerror",
      "seed": "5489",
      "uuid": "cce867fd-0cd7-4566-ac4c-994f86a25ead",
      "version": "2025.1.0",
      "weight": "None",
      "xgbm_file": "t1t2t3t4t5chl_natural.json"
    },
    "feature_names": [
      "t-5_deptho",
      "t-5_doy",
      "t-4_doy",
      "t-3_doy",
      "t-2_doy",
      "t-1_doy",
      "t-0_doy",
      "t-5_mdt",
      "t-5_mlotst",
      "t-4_mlotst",
      "t-3_mlotst",
      "t-2_mlotst",
      "t-1_mlotst",
      "t-0_mlotst",
      "t-5_no3",
      "t-4_no3",
      "t-3_no3",
      "t-2_no3",
      "t-1_no3",
      "t-0_no3",
      "t-5_o2",
      "t-4_o2",
      "t-3_o2",
      "t-2_o2",
      "t-1_o2",
      "t-0_o2",
      "t-5_ph",
      "t-4_ph",
      "t-3_ph",
      "t-2_ph",
      "t-1_ph",
      "t-0_ph",
      "t-5_po4",
      "t-4_po4",
      "t-3_po4",
      "t-2_po4",
      "t-1_po4",
      "t-0_po4",
      "t-5_so",
      "t-4_so",
      "t-3_so",
      "t-2_so",
      "t-1_so",
      "t-0_so",
      "t-5_ssrd",
      "t-4_ssrd",
      "t-3_ssrd",
      "t-2_ssrd",
      "t-1_ssrd",
      "t-0_ssrd",
      "t-5_sst",
      "t-4_sst",
      "t-3_sst",
      "t-2_sst",
      "t-1_sst",
      "t-0_sst",
      "t-5_tcc",
      "t-4_tcc",
      "t-3_tcc",
      "t-2_tcc",
      "t-1_tcc",
      "t-0_tcc",
      "t-5_thetao",
      "t-4_thetao",
      "t-3_thetao",
      "t-2_thetao",
      "t-1_thetao",
      "t-0_thetao",
      "t-5_tp",
      "t-4_tp",
      "t-3_tp",
      "t-2_tp",
      "t-1_tp",
      "t-0_tp",
      "t-5_u10",
      "t-4_u10",
      "t-3_u10",
      "t-2_u10",
      "t-1_u10",
      "t-0_u10",
      "t-5_uo",
      "t-4_uo",
      "t-3_uo",
      "t-2_uo",
      "t-1_uo",
      "t-0_uo",
      "t-5_v10",
      "t-4_v10",
      "t-3_v10",
      "t-2_v10",
      "t-1_v10",
      "t-0_v10",
      "t-5_vo",
      "t-4_vo",
      "t-3_vo",
      "t-2_vo",
      "t-1_vo",
      "t-0_vo",
      "t-5_zos",
      "t-4_zos",
      "t-3_zos",
      "t-2_zos",
      "t-1_zos",
      "t-0_zos",
      "t-5_chl",
      "t-4_chl",
      "t-3_chl",
      "t-2_chl",
      "t-1_chl"
    ],
    "feature_types": [],
    "gradient_booster": {
      "model": {
        "gbtree_model_param": {
          "num_parallel_tree": "1",
          "num_trees": "30"
        },
        "iteration_indptr": [
          0,
          1,
          2,
          3,
          4,
          5,
          6,
          7,
          8,
          9,
          10,
          11,
          12,
          13,
          14,
          15,
          16,
          17,
          18,
          19,
          20,
          21,
          22,
          23,
          24,
          25,
          26,
          27,
          28,
          29,
          30
        ],
        "tree_info": [
          0,
          0,
          0,
          0,
          0,
          0,
          0,
          0,
          0,
          0,
          0,
          0,
          0,
          0,
          0,
          0,
          0,
          0,
          0,
          0,
          0,
          0,
          0,
          0,
          0,
          0,
          0,
          0,
          0,
          0
        ],
        "trees": [
          {
            "base_weights": [
              4.3062362E-1,
              2.1481766E-1,
              6.243493E-1,
              3.6083624E-2,
              3.7695438E-1,
              8.070566E-1,
              5.333757E-1,
              -3.495513E-2,
              4.012134E-1,
              4.7353774E-1,
              2.1482679E-1,
              8.929667E-1,
              7.3372567E-1,
              2.2581542E-1,
              5.7882875E-1,
              -2.55525E-1,
              2.3931464E-2,
              3.0665818E-1,
              5.9550524E-1,
              1.5415205E-1,
              5.0788414E-1,
              -5.6577902E-2,
              3.0455977E-1,
              7.4593794E-1,
              9.1218436E-1,
              5.141035E-1,
              7.5927097E-1,
              2.0595463E-2,
              3.033611E-1,
              5.424093E-1,
              7.943498E-1,
              -3.8021618E-1,
              -2.0132926E-1,
              -5.669596E-2,
              1.5725829E-1,
              2.4496529E-1,
              3.767425E-1,
              5.271504E-1,
              7.1748424E-1,
              -4.2813364E-2,
              2.3488303E-1,
              4.771381E-1,
              7.1098524E-1,
              -1.1292536E-1,
              1.8755747E-1,
              3.501038E-2,
              3.3571574E-1,
              5.3326017E-1,
              7.6821494E-1,
              9.5913863E-1,
              8.7636226E-1,
              3.2476476E-1,
              5.651142E-1,
              7.3918974E-1,
              8.897151E-1,
              -1.0532805E-1,
              8.798798E-2,
              2.3589921E-1,
              3.5212976E-1,
              2.690173E-1,
              5.604206E-1,
              7.2813696E-1,
              8.8606966E-1,
              -1.519852E-1,
              -1.0375314E-1,
              -7.281648E-2,
              -4.7418226E-2,
              -2.5877519E-2,
              7.85066E-2,
              -1.3875108E-2,
              6.321771E-2,
              6.3124746E-2,
              8.3283745E-2,
              1.03429765E-1,
              1.2413181E-1,
              1.4667572E-1,
              1.7206025E-1,
              2.0492548E-1,
              2.5155678E-1,
              -4.4617772E-2,
              6.228599E-3,
              5.2027326E-2,
              8.5513964E-2,
              4.9304362E-2,
              1.4845571E-1,
              1.9910093E-1,
              2.5244364E-1,
              -3.755114E-2,
              6.517166E-2,
              9.727068E-2,
              1.463141E-2,
              -2.8992325E-2,
              2.9995827E-2,
              9.2375144E-2,
              1.6083084E-1,
              1.2214907E-1,
              1.7992944E-1,
              2.1480486E-1,
              2.3798957E-1,
              2.806149E-1,
              2.9837954E-1,
              2.584865E-1,
              2.9770854E-1,
              5.9769012E-2,
              1.1538602E-1,
              1.527181E-1,
              1.8067178E-1,
              1.764614E-1,
              2.2515501E-1,
              2.5650477E-1,
              2.898066E-1,
              -6.1828706E-2,
              -1.8529544E-2,
              1.2645616E-2,
              3.8281485E-2,
              6.0105186E-2,
              7.932807E-2,
              9.694413E-2,
              1.1325192E-1,
              2.636095E-2,
              1.0033103E-1,
              1.6244303E-1,
              2.3134355E-1,
              2.0981422E-1,
              2.3023675E-1,
              2.5307548E-1,
              2.7917674E-1
            ],
            "categories": [],
            "categories_nodes": [],
            "categories_segments": [],
            "categories_sizes": [],
            "default_left": [
              0,
              0,
              0,
              1,
              1,
              0,
              0,
              0,
              0,
              0,
              0,
              0,
              0,
              0,
              1,
              0,
              0,
              0,
              0,
              0,
              1,
              0,
              0,
              0,
              0,
              0,
              1,
              0,
              0,
              0,
              0,
              0,
              0,
              1,
              0,
              0,
              0,
              0,
              0,
              0,
              0,
              0,
              0,
              1,
              0,
              0,
              1,
              0,
              0,
              1,
              1,
              0,
              0,
              0,
              0,
              0,
              0,
              0,
              0,
              0,
              1,
              0,
              0,
              0,
              0,
              0,
              0,
              0,
              0,
              0,
              0,
              0,
              0,
              0,
              0,
              0,
              0,
              0,
              0,
              0,
              0,
              0,
              0,
              0,
              0,
              0,
              0,
              0,
              0,
              0,
              0,
              0,
              0,
              0,
              0,
              0,
              0,
              0,
              0,
              0,
              0,
              0,
              0,
              0,
              0,
              0,
              0,
              0,
              0,
              0,
              0,
              0,
              0,
              0,
              0,
              0,
              0,
              0,
              0,
              0,
              0,
              0,
              0,
              0,
              0,
              0,
              0
            ],
            "id": 0,
            "left_children": [
              1,
              3,
              5,
              7,
              9,
              11,
              13,
              15,
              17,
              19,
              21,
              23,
              25,
              27,
              29,
              31,
              33,
              35,
              37,
              39,
              41,
              43,
              45,
              47,
              49,
              51,
              53,
              55,
              57,
              59,
              61,
              63,
              65,
              67,
              69,
              71,
              73,
              75,
              77,
              79,
              81,
              83,
              85,
              87,
              89,
              91,
              93,
              95,
              97,
              99,
              101,
              103,
              105,
              107,
              109,
              111,
              113,
              115,
              117,
              119,
              121,
              123,
              125,
              -1,
              -1,
              -1,
              -1,
              -1,
              -1,
              -1,
              -1,
              -1,
              -1,
              -1,
              -1,
              -1,
              -1,
              -1,
              -1,
              -1,
              -1,
              -1,
              -1,
              -1,
              -1,
              -1,
              -1,
              -1,
              -1,
              -1,
              -1,
              -1,
              -1,
              -1,
              -1,
              -1,
              -1,
              -1,
              -1,
              -1,
              -1,
              -1,
              -1,
              -1,
              -1,
              -1,
              -1,
              -1,
              -1,
              -1,
              -1,
              -1,
              -1,
              -1,
              -1,
              -1,
              -1,
              -1,
              -1,
              -1,
              -1,
              -1,
              -1,
              -1,
              -1,
              -1,
              -1
            ],
            "loss_changes": [
              1.2915335E6,
              4.234903E5,
              2.70584E5,
              1.802973E5,
              1.1998625E5,
              3.409E4,
              1.5192725E5,
              7.557919E4,
              2.079811E4,
              5.267575E4,
              6.966747E4,
              7.040375E3,
              1.637825E4,
              2.226857E4,
              7.43195E4,
              8.285891E3,
              4.9371023E4,
              3.2924531E3,
              3.089625E3,
              7.414009E3,
              2.7073875E4,
              9.777912E3,
              1.8054453E4,
              1.3644062E3,
              3.706125E3,
              2.9377656E3,
              6.849875E3,
              3.2566228E3,
              3.341164E3,
              3.98845E4,
              8.311625E3,
              1.6137656E3,
              1.530668E3,
              2.6937727E4,
              1.8832406E4,
              4.5676367E2,
              4.22E2,
              4.2089844E2,
              5.535703E2,
              9.1270953E2,
              1.01950977E3,
              2.0864562E4,
              3.519125E3,
              2.3347969E3,
              2.528357E3,
              1.9053989E3,
              1.0734641E4,
              2.2882666E2,
              3.4084375E2,
              8.025E2,
              2.1366875E3,
              4.850381E2,
              4.983672E2,
              3.875375E3,
              9.2296875E2,
              5.872478E2,
              4.539098E2,
              4.3208203E2,
              4.3340625E2,
              5.932832E3,
              3.033475E4,
              8.9825E2,
              1.0845312E3,
              0E0,
              0E0,
              0E0,
              0E0,
              0E0,
              0E0,
              0E0,
              0E0,
              0E0,
              0E0,
              0E0,
              0E0,
              0E0,
              0E0,
              0E0,
              0E0,
              0E0,
              0E0,
              0E0,
              0E0,
              0E0,
              0E0,
              0E0,
              0E0,
              0E0,
              0E0,
              0E0,
              0E0,
              0E0,
              0E0,
              0E0,
              0E0,
              0E0,
              0E0,
              0E0,
              0E0,
              0E0,
              0E0,
              0E0,
              0E0,
              0E0,
              0E0,
              0E0,
              0E0,
              0E0,
              0E0,
              0E0,
              0E0,
              0E0,
              0E0,
              0E0,
              0E0,
              0E0,
              0E0,
              0E0,
              0E0,
              0E0,
              0E0,
              0E0,
              0E0,
              0E0,
              0E0,
              0E0,
              0E0
            ],
            "parents": [
              2147483647,
              0,
              0,
              1,
              1,
              2,
              2,
              3,
              3,
              4,
              4,
              5,
              5,
              6,
              6,
              7,
              7,
              8,
              8,
              9,
              9,
              10,
              10,
              11,
              11,
              12,
              12,
              13,
              13,
              14,
              14,
              15,
              15,
              16,
              16,
              17,
              17,
              18,
              18,
              19,
              19,
              20,
              20,
              21,
              21,
              22,
              22,
              23,
              23,
              24,
              24,
              25,
              25,
              26,
              26,
              27,
              27,
              28,
              28,
              29,
              29,
              30,
              30,
              31,
              31,
              32,
              32,
              33,
              33,
              34,
              34,
              35,
              35,
              36,
              36,
              37,
              37,
              38,
              38,
              39,
              39,
              40,
              40,
              41,
              41,
              42,
              42,
              43,
              43,
              44,
              44,
              45,
              45,
              46,
              46,
              47,
              47,
              48,
              48,
              49,
              49,
              50,
              50,
              51,
              51,
              52,
              52,
              53,
              53,
              54,
              54,
              55,
              55,
              56,
              56,
              57,
              57,
              58,
              58,
              59,
              59,
              60,
              60,
              61,
              61,
              62,
              62
            ],
            "right_children": [
              2,
              4,
              6,
              8,
              10,
              12,
              14,
              16,
              18,
              20,
              22,
              24,
              26,
              28,
              30,
              32,
              34,
              36,
              38,
              40,
              42,
              44,
              46,
              48,
              50,
              52,
              54,
              56,
              58,
              60,
              62,
              64,
              66,
              68,
              70,
              72,
              74,
              76,
              78,
              80,
              82,
              84,
              86,
              88,
              90,
              92,
              94,
              96,
              98,
              100,
              102,
              104,
              106,
              108,
              110,
              112,
              114,
              116,
              118,
              120,
              122,
              124,
              126,
              -1,
              -1,
              -1,
              -1,
              -1,
              -1,
              -1,
              -1,
              -1,
              -1,
              -1,
              -1,
              -1,
              -1,
              -1,
              -1,
              -1,
              -1,
              -1,
              -1,
              -1,
              -1,
              -1,
              -1,
              -1,
              -1,
              -1,
              -1,
              -1,
              -1,
              -1,
              -1,
              -1,
              -1,
              -1,
              -1,
              -1,
              -1,
              -1,
              -1,
              -1,
              -1,
              -1,
              -1,
              -1,
              -1,
              -1,
              -1,
              -1,
              -1,
              -1,
              -1,
              -1,
              -1,
              -1,
              -1,
              -1,
              -1,
              -1,
              -1,
              -1,
              -1,
              -1,
              -1
            ],
            "split_conditions": [
              4.3373575E0,
              1.974306E1,
              2.4532614E1,
              7.059522E-1,
              4.805725E1,
              1.689196E1,
              1.1210407E0,
              3.4337375E-1,
              1.429456E0,
              9.1439027E-1,
              1.405667E-2,
              4.223681E0,
              2.1379335E0,
              5.919085E-1,
              2.550488E0,
              2.1834438E-1,
              1.6081559E-2,
              9.7357416E-1,
              2.3349037E0,
              5.0055784E-1,
              1.9441744E0,
              2.8351406E1,
              6.242537E-1,
              2.0212831E0,
              9.6586685E0,
              1.1447883E0,
              4.5198936E0,
              3.916272E-1,
              8.2851744E-1,
              1.0089992E0,
              4.3659315E0,
              1.4500453E-1,
              2.7948913E-1,
              6.014342E-1,
              5.705689E-1,
              8.191528E-1,
              1.1799821E0,
              1.7681524E0,
              3.8583863E0,
              3.4337375E-1,
              7.1428365E-1,
              8.229807E-1,
              3.562325E0,
              5.379271E-1,
              3.481848E1,
              3.7587968E-1,
              1.2033637E0,
              1.3006436E0,
              2.9862285E0,
              2.6108353E2,
              8.795161E0,
              7.4810076E-1,
              1.6302541E0,
              2.1971202E0,
              8.015384E0,
              2.862643E-1,
              4.9344903E-1,
              7.059522E-1,
              9.647447E-1,
              5.629045E-1,
              2.628015E0,
              3.2394338E0,
              6.4916778E0,
              -1.519852E-1,
              -1.0375314E-1,
              -7.281648E-2,
              -4.7418226E-2,
              -2.5877519E-2,
              7.85066E-2,
              -1.3875108E-2,
              6.321771E-2,
              6.3124746E-2,
              8.3283745E-2,
              1.03429765E-1,
              1.2413181E-1,
              1.4667572E-1,
              1.7206025E-1,
              2.0492548E-1,
              2.5155678E-1,
              -4.4617772E-2,
              6.228599E-3,
              5.2027326E-2,
              8.5513964E-2,
              4.9304362E-2,
              1.4845571E-1,
              1.9910093E-1,
              2.5244364E-1,
              -3.755114E-2,
              6.517166E-2,
              9.727068E-2,
              1.463141E-2,
              -2.8992325E-2,
              2.9995827E-2,
              9.2375144E-2,
              1.6083084E-1,
              1.2214907E-1,
              1.7992944E-1,
              2.1480486E-1,
              2.3798957E-1,
              2.806149E-1,
              2.9837954E-1,
              2.584865E-1,
              2.9770854E-1,
              5.9769012E-2,
              1.1538602E-1,
              1.527181E-1,
              1.8067178E-1,
              1.764614E-1,
              2.2515501E-1,
              2.5650477E-1,
              2.898066E-1,
              -6.1828706E-2,
              -1.8529544E-2,
              1.2645616E-2,
              3.8281485E-2,
              6.0105186E-2,
              7.932807E-2,
              9.694413E-2,
              1.1325192E-1,
              2.636095E-2,
              1.0033103E-1,
              1.6244303E-1,
              2.3134355E-1,
              2.0981422E-1,
              2.3023675E-1,
              2.5307548E-1,
              2.7917674E-1
            ],
            "split_indices": [
              19,
              13,
              0,
              108,
              0,
              0,
              108,
              108,
              108,
              108,
              35,
              108,
              108,
              108,
              108,
              108,
              37,
              108,
              108,
              108,
              108,
              13,
              108,
              108,
              0,
              108,
              108,
              108,
              108,
              107,
              108,
              108,
              108,
              107,
              107,
              108,
              108,
              108,
              108,
              108,
              108,
              107,
              108,
              108,
              42,
              108,
              108,
              108,
              108,
              20,
              108,
              108,
              108,
              106,
              108,
              108,
              108,
              108,
              108,
              107,
              107,
              108,
              108,
              0,
              0,
              0,
              0,
              0,
              0,
              0,
              0,
              0,
              0,
              0,
              0,
              0,
              0,
              0,
              0,
              0,
              0,
              0,
              0,
              0,
              0,
              0,
              0,
              0,
              0,
              0,
              0,
              0,
              0,
              0,
              0,
              0,
              0,
              0,
              0,
              0,
              0,
              0,
              0,
              0,
              0,
              0,
              0,
              0,
              0,
              0,
              0,
              0,
              0,
              0,
              0,
              0,
              0,
              0,
              0,
              0,
              0,
              0,
              0,
              0,
              0,
              0,
              0
            ],
            "split_type": [
              0,
              0,
              0,
              0,
              0,
              0,
              0,
              0,
              0,
              0,
              0,
              0,
              0,
              0,
              0,
              0,
              0,
              0,
              0,
              0,
              0,
              0,
              0,
              0,
              0,
              0,
              0,
              0,
              0,
              0,
              0,
              0,
              0,
              0,
              0,
              0,
              0,
              0,
              0,
              0,
              0,
              0,
              0,
              0,
              0,
              0,
              0,
              0,
              0,
              0,
              0,
              0,
              0,
              0,
              0,
              0,
              0,
              0,
              0,
              0,
              0,
              0,
              0,
              0,
              0,
              0,
              0,
              0,
              0,
              0,
              0,
              0,
              0,
              0,
              0,
              0,
              0,
              0,
              0,
              0,
              0,
              0,
              0,
              0,
              0,
              0,
              0,
              0,
              0,
              0,
              0,
              0,
              0,
              0,
              0,
              0,
              0,
              0,
              0,
              0,
              0,
              0,
              0,
              0,
              0,
              0,
              0,
              0,
              0,
              0,
              0,
              0,
              0,
              0,
              0,
              0,
              0,
              0,
              0,
              0,
              0,
              0,
              0,
              0,
              0,
              0,
              0
            ],
            "sum_hessian": [
              3.089265E7,
              1.4613522E7,
              1.6279129E7,
              6.950988E6,
              7.662534E6,
              5.4113025E6,
              1.0867826E7,
              5.818882E6,
              1.1321064E6,
              4.801914E6,
              2.8606202E6,
              2.4919142E6,
              2.9193882E6,
              1.3993139E6,
              9.468512E6,
              1.2261442E6,
              4.5927375E6,
              7.615085E5,
              3.7059784E5,
              4.6625262E5,
              4.335661E6,
              7.107872E5,
              2.149833E6,
              2.8806378E5,
              2.2038505E6,
              3.0418844E5,
              2.6151998E6,
              3.8374834E5,
              1.0155655E6,
              8.0997865E6,
              1.3687259E6,
              3.714719E5,
              8.5467225E5,
              2.8619912E6,
              1.7307464E6,
              4.0500272E5,
              3.5650578E5,
              2.37508E5,
              1.3308986E5,
              1.3554755E5,
              3.3070506E5,
              3.7656148E6,
              5.700464E5,
              5.774987E5,
              1.3328853E5,
              2.2274353E5,
              1.9270895E6,
              2.7314814E4,
              2.6074895E5,
              9.537219E5,
              1.2501285E6,
              6.456122E4,
              2.3962723E5,
              2.2663185E6,
              3.4888128E5,
              1.3377955E5,
              2.499688E5,
              4.2611903E5,
              5.8944644E5,
              5.006387E5,
              7.599148E6,
              7.9489694E5,
              5.73829E5,
              7.941551E4,
              2.920564E5,
              4.36804E5,
              4.1786825E5,
              2.6188302E6,
              2.4316108E5,
              3.6010556E5,
              1.3706408E6,
              1.9677233E5,
              2.0823038E5,
              1.9131242E5,
              1.6519336E5,
              1.3020185E5,
              1.0730615E5,
              1.0364144E5,
              2.944842E4,
              5.0843742E4,
              8.4703805E4,
              1.4862242E5,
              1.8208264E5,
              2.0182869E5,
              3.5637862E6,
              4.1835975E5,
              1.5168661E5,
              5.56847E5,
              2.0651658E4,
              6.7153586E4,
              6.6134945E4,
              7.3605734E4,
              1.491378E5,
              1.692325E6,
              2.3476452E5,
              9.434179E3,
              1.7880635E4,
              8.4641E4,
              1.7610795E5,
              5.711302E5,
              3.8259166E5,
              1.1091876E6,
              1.4094089E5,
              2.0845719E4,
              4.37155E4,
              9.548003E4,
              1.441472E5,
              1.5815845E5,
              2.10816E6,
              2.3983355E5,
              1.0904773E5,
              4.0377207E4,
              9.3402336E4,
              1.1588941E5,
              1.3407939E5,
              1.8971788E5,
              2.3640116E5,
              2.7517866E5,
              3.142678E5,
              1.3283066E5,
              3.6780803E5,
              6.972348E6,
              6.267999E5,
              4.5912734E5,
              3.3576956E5,
              2.9363416E5,
              2.8019484E5
            ],
            "tree_param": {
              "num_deleted": "0",
              "num_feature": "109",
              "num_nodes": "127",
              "size_leaf_vector": "1"
            }
          },
          {
            "base_weights": [
              3.9270866E-1,
              1.82422E-1,
              6.39154E-1,
              3.5672184E-2,
              3.4448093E-1,
              8.9020413E-1,
              5.2591145E-1,
              -1.051298E-2,
              4.2027363E-1,
              4.6002206E-1,
              1.8759193E-1,
              1.0126954E0,
              7.865219E-1,
              2.2006863E-1,
              5.89516E-1,
              1.3901618E-1,
              -6.236931E-2,
              3.2654625E-1,
              6.5364826E-1,
              1.6162786E-1,
              5.073532E-1,
              -2.0888584E-2,
              2.7465165E-1,
              8.0080193E-1,
              1.0418878E0,
              5.0381976E-1,
              8.228909E-1,
              4.9203496E-2,
              3.041182E-1,
              5.4593486E-1,
              8.815704E-1,
              4.5272928E-1,
              1.0507657E-1,
              -1.0694825E-1,
              1.220142E-1,
              2.7010396E-1,
              4.0173775E-1,
              5.8210456E-1,
              8.179107E-1,
              4.891338E-3,
              2.4112357E-1,
              4.715923E-1,
              7.778548E-1,
              -7.323186E-2,
              1.6793737E-1,
              4.8539784E-2,
              3.089541E-1,
              5.576311E-1,
              8.3752394E-1,
              1.1128451E0,
              9.889592E-1,
              3.1516978E-1,
              5.752163E-1,
              7.9525906E-1,
              1.0083326E0,
              -4.4772018E-2,
              1.1177526E-1,
              2.3523685E-1,
              3.511171E-1,
              2.5988123E-1,
              5.717876E-1,
              7.915531E-1,
              1.0090855E0,
              1.6163418E-1,
              2.6473653E-2,
              -1.4434646E-2,
              4.3507304E-2,
              7.263095E-2,
              -3.525789E-2,
              -1.760571E-2,
              6.330839E-2,
              7.345472E-2,
              9.178684E-2,
              1.1022451E-1,
              1.3302274E-1,
              1.6115208E-1,
              1.9344676E-1,
              2.3358166E-1,
              3.0454955E-1,
              -2.0179324E-2,
              2.076485E-2,
              5.4761827E-2,
              8.606869E-2,
              3.6289334E-2,
              1.4871693E-1,
              2.1213211E-1,
              2.8515208E-1,
              -3.4599833E-2,
              -7.070573E-4,
              8.513917E-2,
              1.656346E-2,
              -1.118804E-2,
              3.4747165E-2,
              8.445136E-2,
              1.6580509E-1,
              1.1799352E-1,
              1.9179362E-1,
              2.3171052E-1,
              2.6120818E-1,
              3.2314572E-1,
              3.5009274E-1,
              2.9027703E-1,
              3.4904632E-1,
              5.7269406E-2,
              1.1621877E-1,
              1.5394488E-1,
              1.8523297E-1,
              1.7914884E-1,
              2.4334462E-1,
              2.873014E-1,
              3.3707955E-1,
              -3.1294357E-2,
              -2.0270033E-3,
              2.1095429E-2,
              4.2969696E-2,
              6.114645E-2,
              7.820347E-2,
              9.533848E-2,
              1.1191431E-1,
              3.2688178E-2,
              1.0311868E-1,
              1.8832056E-1,
              1.3840878E-1,
              2.2599016E-1,
              2.5364962E-1,
              2.8375974E-1,
              3.2095268E-1
            ],
            "categories": [],
            "categories_nodes": [],
            "categories_segments": [],
            "categories_sizes": [],
            "default_left": [
              0,
              0,
              0,
              1,
              1,
              0,
              0,
              0,
              0,
              0,
              0,
              0,
              0,
              0,
              1,
              1,
              0,
              0,
              0,
              0,
              1,
              0,
              0,
              0,
              0,
              0,
              1,
              0,
              0,
              0,
              0,
              1,
              0,
              0,
              0,
              0,
              0,
              0,
              0,
              0,
              0,
              0,
              0,
              0,
              0,
              0,
              1,
              0,
              0,
              1,
              1,
              0,
              0,
              0,
              0,
              0,
              0,
              0,
              0,
              0,
              1,
              0,
              0,
              0,
              0,
              0,
              0,
              0,
              0,
              0,
              0,
              0,
              0,
              0,
              0,
              0,
              0,
              0,
              0,
              0,
              0,
              0,
              0,
              0,
              0,
              0,
              0,
              0,
              0,
              0,
              0,
              0,
              0,
              0,
              0,
              0,
              0,
              0,
              0,
              0,
              0,
              0,
              0,
              0,
              0,
              0,
              0,
              0,
              0,
              0,
              0,
              0,
              0,
              0,
              0,
              0,
              0,
              0,
              0,
              0,
              0,
              0,
              0,
              0,
              0,
              0,
              0
            ],
            "id": 1,
            "left_children": [
              1,
              3,
              5,
              7,
              9,
              11,
              13,
              15,
              17,
              19,
              21,
              23,
              25,
              27,
              29,
              31,
              33,
              35,
              37,
              39,
              41,
              43,
              45,
              47,
              49,
              51,
              53,
              55,
              57,
              59,
              61,
              63,
              65,
              67,
              69,
              71,
              73,
              75,
              77,
              79,
              81,
              83,
              85,
              87,
              89,
              91,
              93,
              95,
              97,
              99,
              101,
              103,
              105,
              107,
              109,
              111,
              113,
              115,
              117,
              119,
              121,
              123,
              125,
              -1,
              -1,
              -1,
              -1,
              -1,
              -1,
              -1,
              -1,
              -1,
              -1,
              -1,
              -1,
              -1,
              -1,
              -1,
              -1,
              -1,
              -1,
              -1,
              -1,
              -1,
              -1,
              -1,
              -1,
              -1,
              -1,
              -1,
              -1,
              -1,
              -1,
              -1,
              -1,
              -1,
              -1,
              -1,
              -1,
              -1,
              -1,
              -1,
              -1,
              -1,
              -1,
              -1,
              -1,
              -1,
              -1,
              -1,
              -1,
              -1,
              -1,
              -1,
              -1,
              -1,
              -1,
              -1,
              -1,
              -1,
              -1,
              -1,
              -1,
              -1,
              -1,
              -1,
              -1
            ],
            "loss_changes": [
              1.309018E6,
              3.2413272E5,
              3.30622E5,
              1.2704842E5,
              1.1740569E5,
              4.5912E4,
              1.55905E5,
              4.9514492E4,
              1.6773E4,
              5.26785E4,
              4.985685E4,
              1.02505E4,
              2.012975E4,
              1.9815172E4,
              8.4446E4,
              1.7507195E4,
              3.897215E4,
              2.3217852E3,
              2.5817031E3,
              6.362504E3,
              3.1140875E4,
              7.9977266E3,
              1.50293125E4,
              1.7914844E3,
              5.469125E3,
              3.0056914E3,
              8.888125E3,
              2.6751304E3,
              2.993961E3,
              4.2694125E4,
              9.8878125E3,
              5.034664E3,
              9.080188E3,
              1.4097953E4,
              1.4848529E4,
              2.8289258E2,
              3.3535938E2,
              4.3098438E2,
              5.1604297E2,
              7.9757855E2,
              9.084512E2,
              2.40575E4,
              4.5908125E3,
              1.8904626E3,
              2.2936997E3,
              1.4740857E3,
              1.12560625E4,
              3.531631E2,
              3.76125E2,
              1.2010625E3,
              3.11025E3,
              5.4990234E2,
              4.2398828E2,
              4.75175E3,
              1.3125625E3,
              4.1159567E2,
              3.561443E2,
              2.997461E2,
              4.0160938E2,
              6.0553125E3,
              3.2710125E4,
              1.0414688E3,
              1.36825E3,
              0E0,
              0E0,
              0E0,
              0E0,
              0E0,
              0E0,
              0E0,
              0E0,
              0E0,
              0E0,
              0E0,
              0E0,
              0E0,
              0E0,
              0E0,
              0E0,
              0E0,
              0E0,
              0E0,
              0E0,
              0E0,
              0E0,
              0E0,
              0E0,
              0E0,
              0E0,
              0E0,
              0E0,
              0E0,
              0E0,
              0E0,
              0E0,
              0E0,
              0E0,
              0E0,
              0E0,
              0E0,
              0E0,
              0E0,
              0E0,
              0E0,
              0E0,
              0E0,
              0E0,
              0E0,
              0E0,
              0E0,
              0E0,
              0E0,
              0E0,
              0E0,
              0E0,
              0E0,
              0E0,
              0E0,
              0E0,
              0E0,
              0E0,
              0E0,
              0E0,
              0E0,
              0E0,
              0E0,
              0E0
            ],
            "parents": [
              2147483647,
              0,
              0,
              1,
              1,
              2,
              2,
              3,
              3,
              4,
              4,
              5,
              5,
              6,
              6,
              7,
              7,
              8,
              8,
              9,
              9,
              10,
              10,
              11,
              11,
              12,
              12,
              13,
              13,
              14,
              14,
              15,
              15,
              16,
              16,
              17,
              17,
              18,
              18,
              19,
              19,
              20,
              20,
              21,
              21,
              22,
              22,
              23,
              23,
              24,
              24,
              25,
              25,
              26,
              26,
              27,
              27,
              28,
              28,
              29,
              29,
              30,
              30,
              31,
              31,
              32,
              32,
              33,
              33,
              34,
              34,
              35,
              35,
              36,
              36,
              37,
              37,
              38,
              38,
              39,
              39,
              40,
              40,
              41,
              41,
              42,
              42,
              43,
              43,
              44,
              44,
              45,
              45,
              46,
              46,
              47,
              47,
              48,
              48,
              49,
              49,
              50,
              50,
              51,
              51,
              52,
              52,
              53,
              53,
              54,
              54,
              55,
              55,
              56,
              56,
              57,
              57,
              58,
              58,
              59,
              59,
              60,
              60,
              61,
              61,
              62,
              62
            ],
            "right_children": [
              2,
              4,
              6,
              8,
              10,
              12,
              14,
              16,
              18,
              20,
              22,
              24,
              26,
              28,
              30,
              32,
              34,
              36,
              38,
              40,
              42,
              44,
              46,
              48,
              50,
              52,
              54,
              56,
              58,
              60,
              62,
              64,
              66,
              68,
              70,
              72,
              74,
              76,
              78,
              80,
              82,
              84,
              86,
              88,
              90,
              92,
              94,
              96,
              98,
              100,
              102,
              104,
              106,
              108,
              110,
              112,
              114,
              116,
              118,
              120,
              122,
              124,
              126,
              -1,
              -1,
              -1,
              -1,
              -1,
              -1,
              -1,
              -1,
              -1,
              -1,
              -1,
              -1,
              -1,
              -1,
              -1,
              -1,
              -1,
              -1,
              -1,
              -1,
              -1,
              -1,
              -1,
              -1,
              -1,
              -1,
              -1,
              -1,
              -1,
              -1,
              -1,
              -1,
              -1,
              -1,
              -1,
              -1,
              -1,
              -1,
              -1,
              -1,
              -1,
              -1,
              -1,
              -1,
              -1,
              -1,
              -1,
              -1,
              -1,
              -1,
              -1,
              -1,
              -1,
              -1,
              -1,
              -1,
              -1,
              -1,
              -1,
              -1,
              -1,
              -1,
              -1,
              -1
            ],
            "split_conditions": [
              4.5235515E0,
              1.9991272E1,
              2.431689E1,
              8.3791614E-1,
              4.6550392E1,
              1.689196E1,
              1.262713E0,
              3.4518627E1,
              1.6489621E0,
              1.0499791E0,
              1.4137461E-2,
              4.223681E0,
              2.1695077E0,
              6.7341685E-1,
              2.6662898E0,
              2.754355E1,
              2.7649277E2,
              1.1565815E0,
              2.7475595E0,
              5.841681E-1,
              2.0779567E0,
              2.8403439E1,
              6.9779474E-1,
              2.201296E0,
              9.6586685E0,
              1.2505302E0,
              4.5198936E0,
              4.46861E-1,
              9.1439027E-1,
              1.1507678E0,
              4.5198936E0,
              2.1379076E-1,
              5.0055784E-1,
              2.334786E1,
              5.841681E-1,
              9.9568933E-1,
              1.3697214E0,
              2.1074414E0,
              5.066265E0,
              4.089228E-1,
              8.0059284E-1,
              8.611062E-1,
              3.6548853E0,
              2.46E2,
              3.481546E1,
              4.404189E-1,
              1.3139414E0,
              1.4140677E0,
              3.04394E0,
              2.6108353E2,
              8.795161E0,
              8.3791614E-1,
              1.6875747E0,
              2.2303946E0,
              8.015384E0,
              3.2721463E-1,
              5.533584E-1,
              7.8270304E-1,
              1.0499791E0,
              6.913657E-1,
              3.913195E1,
              3.3914394E0,
              6.4916778E0,
              1.6163418E-1,
              2.6473653E-2,
              -1.4434646E-2,
              4.3507304E-2,
              7.263095E-2,
              -3.525789E-2,
              -1.760571E-2,
              6.330839E-2,
              7.345472E-2,
              9.178684E-2,
              1.1022451E-1,
              1.3302274E-1,
              1.6115208E-1,
              1.9344676E-1,
              2.3358166E-1,
              3.0454955E-1,
              -2.0179324E-2,
              2.076485E-2,
              5.4761827E-2,
              8.606869E-2,
              3.6289334E-2,
              1.4871693E-1,
              2.1213211E-1,
              2.8515208E-1,
              -3.4599833E-2,
              -7.070573E-4,
              8.513917E-2,
              1.656346E-2,
              -1.118804E-2,
              3.4747165E-2,
              8.445136E-2,
              1.6580509E-1,
              1.1799352E-1,
              1.9179362E-1,
              2.3171052E-1,
              2.6120818E-1,
              3.2314572E-1,
              3.5009274E-1,
              2.9027703E-1,
              3.4904632E-1,
              5.7269406E-2,
              1.1621877E-1,
              1.5394488E-1,
              1.8523297E-1,
              1.7914884E-1,
              2.4334462E-1,
              2.873014E-1,
              3.3707955E-1,
              -3.1294357E-2,
              -2.0270033E-3,
              2.1095429E-2,
              4.2969696E-2,
              6.114645E-2,
              7.820347E-2,
              9.533848E-2,
              1.1191431E-1,
              3.2688178E-2,
              1.0311868E-1,
              1.8832056E-1,
              1.3840878E-1,
              2.2599016E-1,
              2.5364962E-1,
              2.8375974E-1,
              3.2095268E-1
            ],
            "split_indices": [
              19,
              13,
              0,
              108,
              0,
              0,
              108,
              43,
              108,
              108,
              32,
              108,
              108,
              108,
              108,
              0,
              25,
              108,
              108,
              108,
              108,
              12,
              108,
              108,
              0,
              108,
              108,
              108,
              108,
              107,
              108,
              108,
              108,
              0,
              108,
              108,
              108,
              108,
              108,
              108,
              108,
              106,
              108,
              1,
              41,
              108,
              108,
              108,
              108,
              20,
              108,
              108,
              108,
              106,
              108,
              108,
              108,
              108,
              108,
              107,
              0,
              108,
              108,
              0,
              0,
              0,
              0,
              0,
              0,
              0,
              0,
              0,
              0,
              0,
              0,
              0,
              0,
              0,
              0,
              0,
              0,
              0,
              0,
              0,
              0,
              0,
              0,
              0,
              0,
              0,
              0,
              0,
              0,
              0,
              0,
              0,
              0,
              0,
              0,
              0,
              0,
              0,
              0,
              0,
              0,
              0,
              0,
              0,
              0,
              0,
              0,
              0,
              0,
              0,
              0,
              0,
              0,
              0,
              0,
              0,
              0,
              0,
              0,
              0,
              0,
              0,
              0
            ],
            "split_type": [
              0,
              0,
              0,
              0,
              0,
              0,
              0,
              0,
              0,
              0,
              0,
              0,
              0,
              0,
              0,
              0,
              0,
              0,
              0,
              0,
              0,
              0,
              0,
              0,
              0,
              0,
              0,
              0,
              0,
              0,
              0,
              0,
              0,
              0,
              0,
              0,
              0,
              0,
              0,
              0,
              0,
              0,
              0,
              0,
              0,
              0,
              0,
              0,
              0,
              0,
              0,
              0,
              0,
              0,
              0,
              0,
              0,
              0,
              0,
              0,
              0,
              0,
              0,
              0,
              0,
              0,
              0,
              0,
              0,
              0,
              0,
              0,
              0,
              0,
              0,
              0,
              0,
              0,
              0,
              0,
              0,
              0,
              0,
              0,
              0,
              0,
              0,
              0,
              0,
              0,
              0,
              0,
              0,
              0,
              0,
              0,
              0,
              0,
              0,
              0,
              0,
              0,
              0,
              0,
              0,
              0,
              0,
              0,
              0,
              0,
              0,
              0,
              0,
              0,
              0,
              0,
              0,
              0,
              0,
              0,
              0,
              0,
              0,
              0,
              0,
              0,
              0
            ],
            "sum_hessian": [
              2.5258824E7,
              1.3629261E7,
              1.1629563E7,
              7.152465E6,
              6.4767965E6,
              3.615117E6,
              8.0144465E6,
              6.3856415E6,
              7.668237E5,
              3.729902E6,
              2.7468945E6,
              1.6572342E6,
              1.9578828E6,
              1.3797775E6,
              6.634669E6,
              1.6442885E6,
              4.741353E6,
              5.4710075E5,
              2.1972298E5,
              5.106383E5,
              3.2192638E6,
              8.091755E5,
              1.9377189E6,
              2.0067297E5,
              1.4565612E6,
              2.2316911E5,
              1.7347136E6,
              4.5493578E5,
              9.248417E5,
              5.7731825E6,
              8.614864E5,
              1.6052252E5,
              1.4837659E6,
              3.8182128E6,
              9.231401E5,
              3.1251597E5,
              2.3458477E5,
              1.5306208E5,
              6.666091E4,
              1.7183788E5,
              3.3880044E5,
              2.8433675E6,
              3.7589622E5,
              6.335528E5,
              1.7562266E5,
              2.5524178E5,
              1.6824771E6,
              2.6330477E4,
              1.743425E5,
              6.222881E5,
              8.342731E5,
              6.1273207E4,
              1.6189589E5,
              1.5097568E6,
              2.2495689E5,
              1.818374E5,
              2.7309838E5,
              3.751013E5,
              5.497404E5,
              4.785186E5,
              5.294664E6,
              5.049982E5,
              3.5648816E5,
              1.2986266E5,
              3.065986E4,
              3.068924E5,
              1.1768735E6,
              1.1230729E5,
              3.7059055E6,
              3.0466456E5,
              6.1847556E5,
              1.8336112E5,
              1.2915486E5,
              1.286399E5,
              1.0594486E5,
              8.918194E4,
              6.388013E4,
              5.5589113E4,
              1.1071795E4,
              8.098909E4,
              9.084878E4,
              1.4860469E5,
              1.9019575E5,
              1.8308519E5,
              2.6602822E6,
              2.6664E5,
              1.0925622E5,
              3.9745653E5,
              2.3609627E5,
              8.660664E4,
              8.9016016E4,
              1.12160664E5,
              1.4308111E5,
              1.5121738E6,
              1.7030342E5,
              8.744596E3,
              1.758588E4,
              5.8822305E4,
              1.15520195E5,
              3.7502462E5,
              2.4726348E5,
              7.432739E5,
              9.099927E4,
              2.252334E4,
              3.8749867E4,
              6.5554516E4,
              9.634138E4,
              1.1211057E5,
              1.3976461E6,
              1.5627878E5,
              6.867811E4,
              7.085586E4,
              1.1098155E5,
              1.1782301E5,
              1.5527536E5,
              1.678486E5,
              2.0725272E5,
              2.1820566E5,
              3.3153475E5,
              1.709041E5,
              3.076145E5,
              3.514178E6,
              1.7804861E6,
              2.954857E5,
              2.0951248E5,
              1.7471089E5,
              1.8177727E5
            ],
            "tree_param": {
              "num_deleted": "0",
              "num_feature": "109",
              "num_nodes": "127",
              "size_leaf_vector": "1"
            }
          },
          {
            "base_weights": [
              3.4363854E-1,
              1.6073853E-1,
              6.532962E-1,
              1.1705058E-1,
              6.1268E-1,
              9.7783273E-1,
              5.1970965E-1,
              2.1812934E-2,
              2.7757245E-1,
              5.1457375E-1,
              8.9865965E-1,
              1.1537069E0,
              8.519681E-1,
              2.1186347E-1,
              5.99123E-1,
              2.7959222E-1,
              -8.552655E-3,
              3.7910718E-1,
              1.3174811E-1,
              4.3994543E-1,
              6.055317E-1,
              8.0093986E-1,
              1.1028041E0,
              8.508339E-1,
              1.1916453E0,
              5.2057475E-1,
              9.01747E-1,
              6.734408E-2,
              2.9928118E-1,
              5.507892E-1,
              9.710887E-1,
              1.8484269E-1,
              5.499787E-1,
              -3.2098077E-2,
              2.3544389E-1,
              3.4255245E-1,
              7.632867E-1,
              -3.991277E-2,
              1.7837486E-1,
              4.021975E-1,
              4.8547566E-1,
              5.6900495E-1,
              6.6044617E-1,
              7.582884E-1,
              8.7521684E-1,
              1.0259818E0,
              1.216905E0,
              5.498105E-1,
              9.01841E-1,
              1.2781429E0,
              1.1132138E0,
              3.1193703E-1,
              6.05541E-1,
              8.6574733E-1,
              1.1410517E0,
              -6.8681887E-3,
              1.283314E-1,
              2.3480348E-1,
              3.4288314E-1,
              2.3921378E-1,
              5.826602E-1,
              8.6049193E-1,
              1.146342E0,
              -5.735847E-3,
              7.520775E-2,
              1.9276318E-1,
              5.346352E-2,
              -1.5904156E-2,
              4.599437E-2,
              3.118299E-2,
              9.0557575E-2,
              3.51813E-2,
              1.1701814E-1,
              2.0265152E-1,
              2.8771877E-1,
              -2.1316916E-2,
              2.7399318E-2,
              4.6360895E-2,
              1.3169609E-1,
              1.11330196E-1,
              1.2525485E-1,
              1.492719E-1,
              1.3303706E-1,
              1.636208E-1,
              1.768347E-1,
              2.0459266E-1,
              1.889655E-1,
              2.1989846E-1,
              2.371942E-1,
              2.5302634E-1,
              2.742021E-1,
              2.957588E-1,
              3.203209E-1,
              3.5354757E-1,
              3.9290687E-1,
              1.1248977E-1,
              1.9710094E-1,
              2.4791375E-1,
              2.8474715E-1,
              3.6800942E-1,
              4.072573E-1,
              3.2468793E-1,
              4.0642408E-1,
              5.455785E-2,
              1.1653982E-1,
              1.6026735E-1,
              1.9748823E-1,
              1.8393601E-1,
              2.658153E-1,
              3.1993046E-1,
              3.8918114E-1,
              -1.6723825E-2,
              6.961921E-3,
              2.7666016E-2,
              4.585882E-2,
              6.207064E-2,
              7.806305E-2,
              9.475676E-2,
              1.11564726E-1,
              1.0185603E-2,
              9.6473254E-2,
              1.6659778E-1,
              2.6743305E-1,
              2.4183758E-1,
              2.780916E-1,
              3.1985593E-1,
              3.682127E-1
            ],
            "categories": [],
            "categories_nodes": [],
            "categories_segments": [],
            "categories_sizes": [],
            "default_left": [
              0,
              1,
              0,
              0,
              0,
              0,
              0,
              1,
              0,
              0,
              0,
              0,
              0,
              0,
              1,
              0,
              1,
              1,
              0,
              0,
              0,
              0,
              0,
              0,
              0,
              0,
              1,
              0,
              0,
              0,
              0,
              0,
              1,
              1,
              0,
              0,
              0,
              0,
              1,
              0,
              0,
              0,
              0,
              0,
              0,
              0,
              0,
              0,
              0,
              1,
              1,
              0,
              0,
              0,
              0,
              0,
              0,
              0,
              0,
              0,
              1,
              0,
              0,
              0,
              0,
              0,
              0,
              0,
              0,
              0,
              0,
              0,
              0,
              0,
              0,
              0,
              0,
              0,
              0,
              0,
              0,
              0,
              0,
              0,
              0,
              0,
              0,
              0,
              0,
              0,
              0,
              0,
              0,
              0,
              0,
              0,
              0,
              0,
              0,
              0,
              0,
              0,
              0,
              0,
              0,
              0,
              0,
              0,
              0,
              0,
              0,
              0,
              0,
              0,
              0,
              0,
              0,
              0,
              0,
              0,
              0,
              0,
              0,
              0,
              0,
              0,
              0
            ],
            "id": 2,
            "left_children": [
              1,
              3,
              5,
              7,
              9,
              11,
              13,
              15,
              17,
              19,
              21,
              23,
              25,
              27,
              29,
              31,
              33,
              35,
              37,
              39,
              41,
              43,
              45,
              47,
              49,
              51,
              53,
              55,
              57,
              59,
              61,
              63,
              65,
              67,
              69,
              71,
              73,
              75,
              77,
              79,
              81,
              83,
              85,
              87,
              89,
              91,
              93,
              95,
              97,
              99,
              101,
              103,
              105,
              107,
              109,
              111,
              113,
              115,
              117,
              119,
              121,
              123,
              125,
              -1,
              -1,
              -1,
              -1,
              -1,
              -1,
              -1,
              -1,
              -1,
              -1,
              -1,
              -1,
              -1,
              -1,
              -1,
              -1,
              -1,
              -1,
              -1,
              -1,
              -1,
              -1,
              -1,
              -1,
              -1,
              -1,
              -1,
              -1,
              -1,
              -1,
              -1,
              -1,
              -1,
              -1,
              -1,
              -1,
              -1,
              -1,
              -1,
              -1,
              -1,
              -1,
              -1,
              -1,
              -1,
              -1,
              -1,
              -1,
              -1,
              -1,
              -1,
              -1,
              -1,
              -1,
              -1,
              -1,
              -1,
              -1,
              -1,
              -1,
              -1,
              -1,
              -1,
              -1
            ],
            "loss_changes": [
              1.2141128E6,
              2.660921E5,
              3.4510075E5,
              1.8786945E5,
              3.332872E4,
              5.138025E4,
              1.3785688E5,
              6.03734E4,
              6.775397E4,
              6.003797E3,
              6.0522344E3,
              1.1124125E4,
              2.2317812E4,
              1.4608926E4,
              8.0590625E4,
              2.0823156E4,
              3.9640875E4,
              3.788503E4,
              1.5034336E4,
              8.348594E2,
              7.992344E2,
              6.494375E2,
              8.597344E2,
              1.6544375E3,
              5.836E3,
              3.1319531E3,
              1.0132125E4,
              1.9726019E3,
              2.0255703E3,
              3.93945E4,
              9.9905625E3,
              8.0839277E3,
              7.2580312E3,
              2.4403846E4,
              5.3034336E3,
              2.6363938E4,
              4.0273438E3,
              1.6399626E3,
              9.176789E3,
              1.2638672E2,
              1.1172266E2,
              1.1519531E2,
              1.04328125E2,
              1.06125E2,
              9.1546875E1,
              9.729297E1,
              1.3930469E2,
              2.9249756E2,
              3.2829688E2,
              1.66925E3,
              3.36875E3,
              5.0894727E2,
              4.72E2,
              5.2438125E3,
              1.7914844E3,
              2.890044E2,
              2.119148E2,
              2.0600488E2,
              3.3678516E2,
              6.2238555E3,
              3.0376375E4,
              1.1415781E3,
              1.2941562E3,
              0E0,
              0E0,
              0E0,
              0E0,
              0E0,
              0E0,
              0E0,
              0E0,
              0E0,
              0E0,
              0E0,
              0E0,
              0E0,
              0E0,
              0E0,
              0E0,
              0E0,
              0E0,
              0E0,
              0E0,
              0E0,
              0E0,
              0E0,
              0E0,
              0E0,
              0E0,
              0E0,
              0E0,
              0E0,
              0E0,
              0E0,
              0E0,
              0E0,
              0E0,
              0E0,
              0E0,
              0E0,
              0E0,
              0E0,
              0E0,
              0E0,
              0E0,
              0E0,
              0E0,
              0E0,
              0E0,
              0E0,
              0E0,
              0E0,
              0E0,
              0E0,
              0E0,
              0E0,
              0E0,
              0E0,
              0E0,
              0E0,
              0E0,
              0E0,
              0E0,
              0E0,
              0E0,
              0E0,
              0E0
            ],
            "parents": [
              2147483647,
              0,
              0,
              1,
              1,
              2,
              2,
              3,
              3,
              4,
              4,
              5,
              5,
              6,
              6,
              7,
              7,
              8,
              8,
              9,
              9,
              10,
              10,
              11,
              11,
              12,
              12,
              13,
              13,
              14,
              14,
              15,
              15,
              16,
              16,
              17,
              17,
              18,
              18,
              19,
              19,
              20,
              20,
              21,
              21,
              22,
              22,
              23,
              23,
              24,
              24,
              25,
              25,
              26,
              26,
              27,
              27,
              28,
              28,
              29,
              29,
              30,
              30,
              31,
              31,
              32,
              32,
              33,
              33,
              34,
              34,
              35,
              35,
              36,
              36,
              37,
              37,
              38,
              38,
              39,
              39,
              40,
              40,
              41,
              41,
              42,
              42,
              43,
              43,
              44,
              44,
              45,
              45,
              46,
              46,
              47,
              47,
              48,
              48,
              49,
              49,
              50,
              50,
              51,
              51,
              52,
              52,
              53,
              53,
              54,
              54,
              55,
              55,
              56,
              56,
              57,
              57,
              58,
              58,
              59,
              59,
              60,
              60,
              61,
              61,
              62,
              62
            ],
            "right_children": [
              2,
              4,
              6,
              8,
              10,
              12,
              14,
              16,
              18,
              20,
              22,
              24,
              26,
              28,
              30,
              32,
              34,
              36,
              38,
              40,
              42,
              44,
              46,
              48,
              50,
              52,
              54,
              56,
              58,
              60,
              62,
              64,
              66,
              68,
              70,
              72,
              74,
              76,
              78,
              80,
              82,
              84,
              86,
              88,
              90,
              92,
              94,
              96,
              98,
              100,
              102,
              104,
              106,
              108,
              110,
              112,
              114,
              116,
              118,
              120,
              122,
              124,
              126,
              -1,
              -1,
              -1,
              -1,
              -1,
              -1,
              -1,
              -1,
              -1,
              -1,
              -1,
              -1,
              -1,
              -1,
              -1,
              -1,
              -1,
              -1,
              -1,
              -1,
              -1,
              -1,
              -1,
              -1,
              -1,
              -1,
              -1,
              -1,
              -1,
              -1,
              -1,
              -1,
              -1,
              -1,
              -1,
              -1,
              -1,
              -1,
              -1,
              -1,
              -1,
              -1,
              -1,
              -1,
              -1,
              -1,
              -1,
              -1,
              -1,
              -1,
              -1,
              -1,
              -1,
              -1,
              -1,
              -1,
              -1,
              -1,
              -1,
              -1,
              -1,
              -1,
              -1,
              -1
            ],
            "split_conditions": [
              5.110415E0,
              1.3006436E0,
              2.360197E1,
              2.1758383E1,
              2.6273463E0,
              1.5503143E1,
              1.3989921E0,
              3.0628471E1,
              5.1128357E1,
              1.7681524E0,
              4.3659315E0,
              4.223681E0,
              2.405281E0,
              7.566107E-1,
              2.8356493E0,
              2.0226844E-2,
              7.164918E-1,
              1.8809485E0,
              1.2832617E0,
              1.5249873E0,
              2.1695077E0,
              3.3133142E0,
              6.907772E0,
              2.2673426E0,
              9.6586685E0,
              1.3843042E0,
              4.6861835E0,
              5.1522976E-1,
              1.0051155E0,
              1.2687271E0,
              4.8675704E0,
              6.653275E-1,
              1.4500453E-1,
              5.6730855E-1,
              9.2539823E-1,
              9.548584E-1,
              3.5579162E0,
              2.66E2,
              1.114624E0,
              1.9363417E1,
              4.963002E1,
              1.920245E0,
              3.8452904E1,
              2.9330125E0,
              3.7539325E0,
              5.2940707E0,
              1.1392492E1,
              1.508571E0,
              3.1703405E0,
              2.6108353E2,
              8.795161E0,
              9.2539823E-1,
              1.8748673E0,
              2.3685892E0,
              8.015384E0,
              3.5655588E-1,
              6.242537E-1,
              8.766563E-1,
              1.2033637E0,
              7.0961654E-1,
              2.7901864E0,
              3.562325E0,
              6.907772E0,
              -5.735847E-3,
              7.520775E-2,
              1.9276318E-1,
              5.346352E-2,
              -1.5904156E-2,
              4.599437E-2,
              3.118299E-2,
              9.0557575E-2,
              3.51813E-2,
              1.1701814E-1,
              2.0265152E-1,
              2.8771877E-1,
              -2.1316916E-2,
              2.7399318E-2,
              4.6360895E-2,
              1.3169609E-1,
              1.11330196E-1,
              1.2525485E-1,
              1.492719E-1,
              1.3303706E-1,
              1.636208E-1,
              1.768347E-1,
              2.0459266E-1,
              1.889655E-1,
              2.1989846E-1,
              2.371942E-1,
              2.5302634E-1,
              2.742021E-1,
              2.957588E-1,
              3.203209E-1,
              3.5354757E-1,
              3.9290687E-1,
              1.1248977E-1,
              1.9710094E-1,
              2.4791375E-1,
              2.8474715E-1,
              3.6800942E-1,
              4.072573E-1,
              3.2468793E-1,
              4.0642408E-1,
              5.455785E-2,
              1.1653982E-1,
              1.6026735E-1,
              1.9748823E-1,
              1.8393601E-1,
              2.658153E-1,
              3.1993046E-1,
              3.8918114E-1,
              -1.6723825E-2,
              6.961921E-3,
              2.7666016E-2,
              4.585882E-2,
              6.207064E-2,
              7.806305E-2,
              9.475676E-2,
              1.11564726E-1,
              1.0185603E-2,
              9.6473254E-2,
              1.6659778E-1,
              2.6743305E-1,
              2.4183758E-1,
              2.780916E-1,
              3.1985593E-1,
              3.682127E-1
            ],
            "split_indices": [
              19,
              108,
              0,
              13,
              108,
              0,
              108,
              0,
              0,
              108,
              108,
              108,
              108,
              108,
              108,
              37,
              107,
              107,
              19,
              108,
              108,
              108,
              108,
              108,
              0,
              108,
              108,
              108,
              108,
              106,
              108,
              108,
              108,
              105,
              108,
              108,
              107,
              1,
              107,
              13,
              0,
              108,
              0,
              108,
              108,
              108,
              108,
              108,
              108,
              20,
              108,
              108,
              108,
              106,
              108,
              108,
              108,
              108,
              108,
              106,
              107,
              108,
              108,
              0,
              0,
              0,
              0,
              0,
              0,
              0,
              0,
              0,
              0,
              0,
              0,
              0,
              0,
              0,
              0,
              0,
              0,
              0,
              0,
              0,
              0,
              0,
              0,
              0,
              0,
              0,
              0,
              0,
              0,
              0,
              0,
              0,
              0,
              0,
              0,
              0,
              0,
              0,
              0,
              0,
              0,
              0,
              0,
              0,
              0,
              0,
              0,
              0,
              0,
              0,
              0,
              0,
              0,
              0,
              0,
              0,
              0,
              0,
              0,
              0,
              0,
              0,
              0
            ],
            "split_type": [
              0,
              0,
              0,
              0,
              0,
              0,
              0,
              0,
              0,
              0,
              0,
              0,
              0,
              0,
              0,
              0,
              0,
              0,
              0,
              0,
              0,
              0,
              0,
              0,
              0,
              0,
              0,
              0,
              0,
              0,
              0,
              0,
              0,
              0,
              0,
              0,
              0,
              0,
              0,
              0,
              0,
              0,
              0,
              0,
              0,
              0,
              0,
              0,
              0,
              0,
              0,
              0,
              0,
              0,
              0,
              0,
              0,
              0,
              0,
              0,
              0,
              0,
              0,
              0,
              0,
              0,
              0,
              0,
              0,
              0,
              0,
              0,
              0,
              0,
              0,
              0,
              0,
              0,
              0,
              0,
              0,
              0,
              0,
              0,
              0,
              0,
              0,
              0,
              0,
              0,
              0,
              0,
              0,
              0,
              0,
              0,
              0,
              0,
              0,
              0,
              0,
              0,
              0,
              0,
              0,
              0,
              0,
              0,
              0,
              0,
              0,
              0,
              0,
              0,
              0,
              0,
              0,
              0,
              0,
              0,
              0,
              0,
              0,
              0,
              0,
              0,
              0
            ],
            "sum_hessian": [
              2.1436972E7,
              1.3476844E7,
              7.960128E6,
              1.228891E7,
              1.187934E6,
              2.3211342E6,
              5.638994E6,
              7.712866E6,
              4.576044E6,
              8.845045E5,
              3.0342953E5,
              9.682136E5,
              1.3529206E6,
              1.1563604E6,
              4.4826335E6,
              8.128046E5,
              6.9000615E6,
              2.697691E6,
              1.878353E6,
              4.8586903E5,
              3.9863547E5,
              2.0520636E5,
              9.8223164E4,
              1.0778195E5,
              8.604317E5,
              1.7668503E5,
              1.1762356E6,
              4.3583594E5,
              7.205245E5,
              3.9671398E6,
              5.1549375E5,
              6.018904E5,
              2.1091427E5,
              6.2928125E6,
              6.072492E5,
              2.4633088E6,
              2.3438214E5,
              4.012207E5,
              1.4771322E6,
              2.6564197E5,
              2.2022705E5,
              2.3940508E5,
              1.5923039E5,
              1.3036124E5,
              7.4845125E4,
              5.870684E4,
              3.9516324E4,
              1.561865E4,
              9.2163305E4,
              4.0916778E5,
              4.5126388E5,
              5.1132363E4,
              1.2555267E5,
              1.0224314E6,
              1.5380428E5,
              1.966021E5,
              2.3923386E5,
              2.9067962E5,
              4.2984488E5,
              3.6814178E5,
              3.598998E6,
              3.160504E5,
              1.9944334E5,
              1.4689636E5,
              4.54994E5,
              1.6886767E5,
              4.20466E4,
              5.6549025E6,
              6.379099E5,
              2.0377627E5,
              4.034729E5,
              4.2900125E5,
              2.0343076E6,
              1.618269E5,
              7.255524E4,
              3.2427262E5,
              7.694807E4,
              1.3533418E6,
              1.23790484E5,
              8.767905E4,
              1.7796292E5,
              1.7098808E5,
              4.9238973E4,
              1.1113227E5,
              1.28272805E5,
              9.3407125E4,
              6.582327E4,
              7.3181836E4,
              5.7179402E4,
              4.114322E4,
              3.3701902E4,
              2.9952275E4,
              2.8754566E4,
              2.7956068E4,
              1.1560256E4,
              5.937819E3,
              9.680831E3,
              3.552501E4,
              5.663829E4,
              2.4828039E5,
              1.6088739E5,
              4.0005484E5,
              5.120903E4,
              1.894116E4,
              3.2191205E4,
              5.3388434E4,
              7.216424E4,
              7.6062125E4,
              9.4636925E5,
              1.0409286E5,
              4.9711414E4,
              7.4889375E4,
              1.2171272E5,
              9.677743E4,
              1.4245642E5,
              1.3854264E5,
              1.5213698E5,
              2.2249331E5,
              2.0735155E5,
              1.05420555E5,
              2.6272122E5,
              3.3063175E6,
              2.9268047E5,
              1.7387245E5,
              1.4217794E5,
              1.00271875E5,
              9.917147E4
            ],
            "tree_param": {
              "num_deleted": "0",
              "num_feature": "109",
              "num_nodes": "127",
              "size_leaf_vector": "1"
            }
          },
          {
            "base_weights": [
              2.896591E-1,
              6.4455456E-1,
              1.3281588E-1,
              4.9101487E-1,
              9.834793E-1,
              8.190751E-3,
              2.723508E-1,
              1.2975514E-1,
              5.916391E-1,
              1.2723982E0,
              8.1280917E-1,
              -2.8692752E-2,
              2.1608642E-1,
              2.2952464E-1,
              7.091968E-1,
              1.7468864E-2,
              2.410965E-1,
              5.348077E-1,
              1.1009716E0,
              1.4374849E0,
              1.1600168E0,
              5.0162894E-1,
              8.757561E-1,
              -4.6049546E-2,
              2.7444768E-1,
              3.901821E-1,
              1.4624968E-1,
              2.5154948E-2,
              2.8588668E-1,
              6.140776E-1,
              1.1045194E0,
              -5.0197963E-2,
              7.6032296E-2,
              1.9524309E-1,
              3.0525538E-1,
              7.107195E-2,
              5.8097726E-1,
              9.580166E-1,
              1.3385001E0,
              1.1780916E0,
              1.4741917E0,
              8.903933E-1,
              1.2172706E0,
              3.527935E-1,
              5.951343E-1,
              8.356897E-1,
              1.2201748E0,
              -5.673122E-2,
              1.9712307E-1,
              2.0885608E-1,
              5.7168067E-1,
              3.4000674E-1,
              6.3225377E-1,
              8.1323035E-2,
              3.1216398E-1,
              -4.482299E-2,
              8.4507704E-2,
              2.6058578E-1,
              7.0455533E-1,
              5.4322654E-1,
              7.206743E-1,
              9.877909E-1,
              1.3085141E0,
              -2.9101266E-2,
              -7.6741115E-3,
              1.4218444E-2,
              3.1924583E-2,
              4.803828E-2,
              6.538003E-2,
              8.322427E-2,
              9.92304E-2,
              -4.044988E-2,
              5.3599875E-2,
              1.187311E-1,
              1.9953609E-1,
              2.651587E-1,
              3.1572416E-1,
              3.7306663E-1,
              4.4430378E-1,
              3.1030697E-1,
              3.774686E-1,
              4.2080513E-1,
              4.7370481E-1,
              2.2221805E-1,
              2.860838E-1,
              3.5380393E-1,
              4.661957E-1,
              7.94256E-2,
              1.1855411E-1,
              1.5914597E-1,
              1.9153309E-1,
              1.585697E-1,
              2.5677735E-1,
              3.4354448E-1,
              4.33559E-1,
              -2.0999305E-2,
              1.9979052E-2,
              4.074393E-2,
              1.4301865E-1,
              4.978273E-2,
              8.740579E-2,
              1.480198E-1,
              2.4285401E-1,
              6.880128E-2,
              1.271173E-1,
              1.7581119E-1,
              3.5998094E-1,
              1.5051612E-2,
              8.9880124E-2,
              7.0483014E-2,
              1.2406382E-1,
              -3.469384E-2,
              -7.948131E-3,
              1.6539473E-2,
              3.676262E-2,
              4.5269583E-3,
              8.702849E-2,
              1.825346E-1,
              3.0092102E-1,
              1.5097061E-1,
              1.7550452E-1,
              2.0305675E-1,
              2.3615584E-1,
              2.770502E-1,
              3.212182E-1,
              3.6953864E-1,
              4.2026696E-1
            ],
            "categories": [],
            "categories_nodes": [],
            "categories_segments": [],
            "categories_sizes": [],
            "default_left": [
              1,
              1,
              0,
              0,
              1,
              0,
              1,
              0,
              1,
              1,
              0,
              1,
              0,
              0,
              0,
              0,
              0,
              0,
              0,
              0,
              0,
              0,
              1,
              1,
              0,
              0,
              0,
              0,
              1,
              0,
              0,
              0,
              0,
              0,
              0,
              0,
              1,
              0,
              0,
              0,
              1,
              0,
              1,
              0,
              0,
              0,
              0,
              1,
              0,
              0,
              0,
              0,
              1,
              0,
              0,
              0,
              0,
              0,
              0,
              0,
              0,
              0,
              0,
              0,
              0,
              0,
              0,
              0,
              0,
              0,
              0,
              0,
              0,
              0,
              0,
              0,
              0,
              0,
              0,
              0,
              0,
              0,
              0,
              0,
              0,
              0,
              0,
              0,
              0,
              0,
              0,
              0,
              0,
              0,
              0,
              0,
              0,
              0,
              0,
              0,
              0,
              0,
              0,
              0,
              0,
              0,
              0,
              0,
              0,
              0,
              0,
              0,
              0,
              0,
              0,
              0,
              0,
              0,
              0,
              0,
              0,
              0,
              0,
              0,
              0,
              0,
              0
            ],
            "id": 3,
            "left_children": [
              1,
              3,
              5,
              7,
              9,
              11,
              13,
              15,
              17,
              19,
              21,
              23,
              25,
              27,
              29,
              31,
              33,
              35,
              37,
              39,
              41,
              43,
              45,
              47,
              49,
              51,
              53,
              55,
              57,
              59,
              61,
              63,
              65,
              67,
              69,
              71,
              73,
              75,
              77,
              79,
              81,
              83,
              85,
              87,
              89,
              91,
              93,
              95,
              97,
              99,
              101,
              103,
              105,
              107,
              109,
              111,
              113,
              115,
              117,
              119,
              121,
              123,
              125,
              -1,
              -1,
              -1,
              -1,
              -1,
              -1,
              -1,
              -1,
              -1,
              -1,
              -1,
              -1,
              -1,
              -1,
              -1,
              -1,
              -1,
              -1,
              -1,
              -1,
              -1,
              -1,
              -1,
              -1,
              -1,
              -1,
              -1,
              -1,
              -1,
              -1,
              -1,
              -1,
              -1,
              -1,
              -1,
              -1,
              -1,
              -1,
              -1,
              -1,
              -1,
              -1,
              -1,
              -1,
              -1,
              -1,
              -1,
              -1,
              -1,
              -1,
              -1,
              -1,
              -1,
              -1,
              -1,
              -1,
              -1,
              -1,
              -1,
              -1,
              -1,
              -1,
              -1,
              -1
            ],
            "loss_changes": [
              1.04678725E6,
              2.99939E5,
              2.2679472E5,
              1.4419844E5,
              8.8610125E4,
              5.2824797E4,
              1.1511175E5,
              1.0804175E4,
              8.9807375E4,
              1.237925E4,
              2.2127938E4,
              3.0785393E4,
              1.2620836E4,
              6.4546094E4,
              2.0656281E4,
              1.7050773E3,
              1.2764922E3,
              5.976E4,
              1.0573844E4,
              2.5716875E3,
              6.128125E3,
              2.645039E3,
              1.29654375E4,
              1.4374914E4,
              6.17751E3,
              3.6094414E3,
              7.9807344E3,
              5.0310947E3,
              4.6525844E4,
              3.3439062E3,
              2.5356953E3,
              2.3001175E2,
              2.0068188E2,
              2.0160254E2,
              1.2836914E2,
              5.5990034E3,
              3.9558312E4,
              1.3600625E3,
              1.5813906E3,
              3.846953E2,
              1.772625E3,
              6.5734766E2,
              4.1802812E3,
              2.7358984E2,
              3.265E2,
              5.2304375E3,
              1.651375E3,
              8.67358E3,
              3.9918691E3,
              9.189424E2,
              1.066084E3,
              2.280625E3,
              1.3379375E3,
              3.6206643E3,
              1.6312305E3,
              7.216345E2,
              7.322954E2,
              3.0006E4,
              7.1804688E3,
              4.442422E2,
              5.147344E2,
              3.603672E2,
              2.730625E2,
              0E0,
              0E0,
              0E0,
              0E0,
              0E0,
              0E0,
              0E0,
              0E0,
              0E0,
              0E0,
              0E0,
              0E0,
              0E0,
              0E0,
              0E0,
              0E0,
              0E0,
              0E0,
              0E0,
              0E0,
              0E0,
              0E0,
              0E0,
              0E0,
              0E0,
              0E0,
              0E0,
              0E0,
              0E0,
              0E0,
              0E0,
              0E0,
              0E0,
              0E0,
              0E0,
              0E0,
              0E0,
              0E0,
              0E0,
              0E0,
              0E0,
              0E0,
              0E0,
              0E0,
              0E0,
              0E0,
              0E0,
              0E0,
              0E0,
              0E0,
              0E0,
              0E0,
              0E0,
              0E0,
              0E0,
              0E0,
              0E0,
              0E0,
              0E0,
              0E0,
              0E0,
              0E0,
              0E0,
              0E0
            ],
            "parents": [
              2147483647,
              0,
              0,
              1,
              1,
              2,
              2,
              3,
              3,
              4,
              4,
              5,
              5,
              6,
              6,
              7,
              7,
              8,
              8,
              9,
              9,
              10,
              10,
              11,
              11,
              12,
              12,
              13,
              13,
              14,
              14,
              15,
              15,
              16,
              16,
              17,
              17,
              18,
              18,
              19,
              19,
              20,
              20,
              21,
              21,
              22,
              22,
              23,
              23,
              24,
              24,
              25,
              25,
              26,
              26,
              27,
              27,
              28,
              28,
              29,
              29,
              30,
              30,
              31,
              31,
              32,
              32,
              33,
              33,
              34,
              34,
              35,
              35,
              36,
              36,
              37,
              37,
              38,
              38,
              39,
              39,
              40,
              40,
              41,
              41,
              42,
              42,
              43,
              43,
              44,
              44,
              45,
              45,
              46,
              46,
              47,
              47,
              48,
              48,
              49,
              49,
              50,
              50,
              51,
              51,
              52,
              52,
              53,
              53,
              54,
              54,
              55,
              55,
              56,
              56,
              57,
              57,
              58,
              58,
              59,
              59,
              60,
              60,
              61,
              61,
              62,
              62
            ],
            "right_children": [
              2,
              4,
              6,
              8,
              10,
              12,
              14,
              16,
              18,
              20,
              22,
              24,
              26,
